-0.11448779613099991 0.2245916727003383 0.4119251686979287 0.631581319653193 -0.717302700528951 -0.5015926332810796 -0.600336140973067 -0.0174723549285581 0.17942399598947462 -1.237442485335732 0.3694281057115375 0.17700059261705609 -1.0901330203823214 0.3353369234099574 -0.7393116258379111 -0.4874975044011133 0.29401080765161386 -0.813213742746789 0.06347740117341087 1.0229321579856911 -0.09729393605689157 -0.24802738927040768 -0.4254856466220081 0.24721895869028487 0.08028601490835757 -0.31037288048506273 0.4025152792600706 0.6535652108145805 -0.3275003977776825 1.0783226086361712 0.83303301369666 0.2776923601139485 0.025806911268174932 -0.034269905095450796 -0.12869721763099745 0.2503502195885483 1.2743759234019774 -0.17134272559376595 -0.2784334135164311 -0.7372681641407203 0.8200657888316407 -0.9494745511383326 -0.6161335242522491 0.4169609801116405 0.19329190943180505 0.5205620949375949 -0.09930452538354273 -0.275291390124098 -0.49903140027450493 -1.0177603760839817 -0.3363993356742873 0.2994752659479914 -0.16187389274574435 -0.9599735213116117 -0.12417289870638087 0.3513788320931103 0.2298925989862181 0.513519975818792 1.1713972963537735 -0.7578187710506146 -0.4854242381435725 0.4252203018629659 0.61577337392093 0.5711872633873888 0.4767339910263819 -0.5867427126097684 0.9340927825912432 -0.12323414021062679 0.3713962406480641 0.6171688207693706 0.22413671802197094 1.249767656725306 -0.12792285788120128 0.027682505105424866 -0.3229526504295816 -0.2500910443605096 -0.43805280801203 0.164101344852425 -0.26750170176242594 -1.259105459311822 0.060975181620744126 0.0818682383450022 0.36975203706815596 -0.5560806523665615 0.6858662126753721 0.1917991577244389 0.3198148202248594 0.7900836613674297 -0.569467053177448 -0.5126354199009493 0.8040238979796079 -1.0270290184882043 0.17262184899487212 -0.021797632005980387 -0.6355405542249377 -0.18150031281707948 1.249614796547314 0.11850948457677427 -0.21500251384622823 -0.12279570242967551 -0.12354609216650524 -0.24205299610522735 0.21483389986003013 -1.1126769358804953 -1.546209102577949 -0.5873849550010417 -0.7700468733068456 0.2664120946122633 0.036604094763694806 0.5388279104188249 0.37548356069722044 -0.17568657468106266 -0.4007126852095816 -0.47367320271929114 -0.26979428365984104 -0.5466538961377007 -0.15604033688933433 -1.5216806050996226 0.6176585495406867 0.9044875314199888 -0.20537759576164102 0.5063855397966673 0.31448006320584043 -0.32193095813614675 -0.23591246736991045 0.9893941536855662 -0.1526295370923031 0.0719487015117594 0.005624069113579778 0.5473165044881213 -0.996788841744463 0.6521042194103088 0.8269705609771705 0.5194700776244315 0.3422544550898922 -0.13256704648002943 -0.1876236900229059 0.05154188820467612 -0.3984787680137038 1.3681179431895498 0.9380153854481181 -0.4582897933876501 0.0027060980364389323 -0.46836289185326396 -0.6613118708085413 1.0114440489529009 -0.19793489743120538 -0.10279526856768074 -1.2768108340053137 -0.4292751690273457 -0.7750498834323939 -0.1350516394932354 -1.2144333929321816 -0.3958287739536005 0.7418485401053139 0.609555938155515 -0.16600809932409413 -0.3766218239620474 0.24172886028243593 -0.1927125125390143 -0.20083639995848213 -0.39120672148661906 -0.40769860294219373 0.7839298272849249 -0.39179619223505624 -0.5354966088442497 0.7631027901628333 0.9194606977180533 0.8460492531628282 -0.07425631159061305 -1.027275329856791 0.39438036376593516 0.19920679638553979 -0.7854125938337264 -0.2317107558304555 0.4765277786630673 -0.1412701801940582 0.3206847885151602 0.17852554119901026 0.18275230500752251 1.0222502858003277 0.11221996632750489 0.6954558974657286 -0.06044280844995814 0.29247666373245823 -0.031182873264077073 0.833924119193407 -0.6740097286415355 -0.5730832781151627 0.6626240366940873 0.3906400080359154 0.3107376182764169 -0.31682505840713665 -0.27171125472977786 1.0925774759365399 -0.04955921364127103 0.2834587175535678 -0.32406988040641455 -0.2044688510383907 -0.22946516069659154 -1.1880023490841491 -0.9905184667777763 0.6380630471901733 -0.6607252427762813 0.08934255934550425 0.28357912957298653 0.2475655599681135 -0.7044455568107756 0.9424565868889099 -0.3798167212111476 -0.2620487986886262 0.13034325502127478 -0.46176017879492387 0.03012169853509486 0.1159560592473868 -0.5075137286934798 0.40950206734458877 -0.9579122729013613 -0.3860434224994325 0.6424000841918344 0.9154422798457378 -0.3290391827675491 -0.38183256656172837 -0.01159771080620999 0.7412770933289794 0.2512220376579812 0.15816779834152853 0.8147050551728632 -0.47009337219833774 -0.6483341131091457 0.21740114880103664 -0.3691889427855998 -0.08964875162903266 0.6296515379785036 0.6994171867922901 0.6070384123894793 -0.5500237602435545 -0.5327109147699336 0.32709214571762796 0.5066340845422971 -0.6474115348539667 0.9577129550343416 -0.5505581249788241 -0.15971539246959368 0.34012810143953415 -0.6356563547253548 0.2608909062333574 0.410094880918231 0.09163567915744138 -0.3291266631638341 0.11346221214564334 0.05126777691787793 0.7449994842746515 -0.17426805150666477 -1.0277690053287656 -0.14215358624490584 -0.936933982718099 0.10674978642276185 0.11103470214279604 0.33234626618322194 -0.1946184004061646 -1.4627814282341158 0.2752651716563385 0.38145440029232225 0.36060770917790586 0.1780819908856952 -0.25766157669606243 1.1462488093321452 0.577769928054095 0.1748923373771454 -0.14994015359460605 -0.24461744453952666 -0.7596907960294276 -0.38141201455340734 -0.9048728736972939 0.833032523912457 -0.40924578016324564 0.27520517822018936 -0.9860837562541125 -0.5737597529644702 0.4396281320904466 0.9020361518612916 -0.6107538959858619 -0.14811532731778676 -0.8475837419881026 -0.8831700725447714 -0.4814908550823108 0.3957132024349218 -0.05508512521953636 0.20593520390935477 -0.5250024130780999 0.44116209852531985 1.5450819517823897 0.6685957374497125 -0.9483971780203506 0.9252086477755086 -0.8323768106182892 -0.7415518133162783 0.6205053495475589 -0.5935156451989333 -0.6224847765350483 -0.9872893940824129 -0.09656417977726962 -0.20226980765836244 -0.34251139976798645 0.40184692997589244 0.9822366054486161 0.5965192650818543 0.045269472151088674 -0.36195842150976415 -0.1335169450268752 -0.17761670023933437 -0.18461077591851463 -0.10841296573605033 0.3114346324377515 0.7972860531833391 0.11360636674967539 -0.6209428405429164 0.9809636657641804 0.2901173555916705 0.3091260518220386 -0.16939587851652832 -0.9705357959840238 1.2179128317993761 -0.43936679969593356 0.4361834723984236 0.039997880900187924 0.0838860159552274 0.17153359472071836 0.2509792050921971 0.18245553678098134 -0.23387232990753196 -0.6556223932988514 0.32405313056621826 0.8953692044495951 -1.2843375712639076 -1.0406713220800323 -0.5978450067272479 -1.3946307069997592 -0.8204550380864974 1.267436206259347 -0.32106662542937137 -0.324487419123647 0.19879855968806562 -0.22564826291587625 -1.0343661178421915 -0.43104776312395493 0.35195325587706267 0.04402144947972818 -0.31098164965611375 -0.2521910973542731 0.058445596094607366 -1.2752778893187475 0.4957099790095636 -0.07822370023896853 -0.025575662698577892 0.4380623416548197 1.2714975907052866 1.0194694438345724 0.11350020029029675 0.06454951498089158 -0.8659003375690902 -0.09191735124158579 -0.5977358272374848 -0.24041905688334766 0.1996533958092655 0.2747978796814929 -1.0037171766936868 -0.05529155928227507 -0.20118407551570497 0.3016328999077886 -0.14414844922552375 -0.11106174775734162 0.46527099349649537 1.0429355541419587 0.9224262345264599 0.2877806701013205 0.15805296161798812 0.13157173364938274 -0.20598982108530856 -0.09570114770633353 -0.3947282370172876 -0.8280672466501208 -0.3084728297698772 -0.2753371942057685 -0.2168477547667194 -0.17756689390939112 -0.1652956125182404 -0.7018563124287679 0.48368217640623595 0.22750851178646403 -0.2893875801041702 -0.9820917922636195 -0.19316297473785687 0.3739502786466134 -1.1832605448816522 0.3489829143845424 -0.38160788503952214 -0.015978646291225317 0.4504461768440384 0.41177455249215356 0.09466197767248677 1.3594995445836435 -0.8738923887264421 1.1946475764326532 0.2868016338681329 1.5577115223648461 0.1650453774095967 -0.3773788026810427 0.46046288750754133 -0.08472223642866797 -1.0366285334383696 0.42768765614895876 0.5075554684681678 -0.9385275223841059 -0.5226550550502982 0.09379334641538059 -0.28026673143324254 0.7394311631797007 0.46838021148765335 -1.0628930903793035 0.296926033943661 0.8979105868901223 -0.6766258783858782 0.3206412355347584 -0.5321820978658687 0.28628930167331534 -0.9859457467615478 -0.3916766974771069 0.9291944476763225 0.4479644892727827 0.3571610545975989 0.1702919974020347 0.19173566928539829 0.3347516157761265 0.010584993433281278 -0.05536140607729493 -0.6097936611197282 -0.21790110792275405 0.31025144745971234 -0.7974202224133967 0.14985432783335945 -0.6033529412303936 -0.3297590973501515 -0.6801864345576032 -0.8148598026558695 -0.29889495884406503 0.34217079185276306 1.0512595635786466 0.5264098956416304 0.5702284871886235 -0.21619537655392643 1.4016276336941726 0.2620310200214752 0.5577535165478821 1.4084524209405713 0.7370499244590388 -0.20843307617262133 -0.6442243061629765 0.18110697671437687 0.4563147696905016 -0.6346226413151568 -0.24455428506588106 -0.5386279874606783 0.38207207598501336 -0.01848835110149736 -1.2778628058957293 -0.11390699326971897 -0.10807014591360128 0.7621436155110247 1.0897182891018433 -0.6199483980805635 0.08797968174780021 -0.19485648087376464 0.29898226772449454 0.9397708022908834 -0.37950196024895344 -0.09452745843362453 -0.8822491643241136 -0.4114489215353231 0.7596228771223081 0.3054517354317763 -0.33457338219913524 -0.175512006086159 0.3054218102596759 -0.6753813961603099 0.9449419591455239 -0.35388423287415494 -0.2297896755814459 0.3525854614449521 0.31374973509591597 0.32629521827520014 0.48797599139569275 -0.8854474289377616 -0.11082108970745597 0.49446510358962353 0.2524333077403775 -0.28167438752296553 -0.2104573964811757 0.390194019953898 0.38324134656823966 -0.9785938087412012 0.4067596924609327 -1.077193218398089 -0.6209058620326673 -0.34678901800199924 0.8093192392083681 -0.33396892417773477 1.0001079556370995 -0.07758143241825996 0.010846302126417887 -0.21991621276319673 0.5128217445489371 -0.16236743491684444 -1.7916928141509234 1.2614482165321739 -0.24916582898689196 -1.1810423035861504 -0.16891937183913552 -0.222657162202292 -0.6924520876299564 0.9316330158375487 -0.6015269587804836 0.6502198783096198 0.7180547612983131 0.5127696148350708 -1.1170886966138884 0.28730654932535343 0.5062130765311722 -0.16735954740627518 -0.4890997001430057 1.0078920581215172 0.2720301468902739 0.6579553168889437 -0.6398327021860233 0.5456112938752934 -1.1154539050057286 -0.8616252401570251 0.1104000087577757 -1.0181300291493636 0.11352692383407215 0.03855663627607907 -0.28836956099699995 0.38154798338675694 -0.5500552410117877 -0.9109946523776786 -0.014850304655196564 -0.39686635823781113 0.5495441906483844 0.3600598569300135 0.23872874117724668 0.40869543158569205 -0.14189726218968055 0.5455773514716391 0.745083660752591 0.2442702149490866 -0.17899913216446942 0.06411916943982017 0.22266276628759368 0.12048258995521956 -0.2201737949044531 -1.0687296644824604 0.25197726554822125 0.2311628822041754 0.09646049514689539 0.6549351390329746 0.7959958111656856 0.5120434123532553 0.24677435977452705 -0.6179423337548877 -0.8634346328049703 -0.01685567943326656 0.31221540208309234 0.4911697224389764 1.0857722205818476 1.278270932052195 0.2626383233719026 0.10040204057959529 1.4409531275543288 0.2564586522395289 -0.3146387335614681 -0.14184976315709455 -0.6547273831035172 0.5152325599516733 -0.34158355676792107 0.8945365594181657 -0.3882002472240687 0.5434877696473275 0.8698762825201656 -0.5792037733450038 -1.1389832980117227 -0.2482859696119143 -0.39942349099351393 -0.06565093390486082 -0.21511236554039115 0.5391431459194844 -0.5835395023696919 0.8534406841752314 -0.002079943313961101 -0.2103536234068694 -0.05886845448999898 0.9154260096016352 0.24300041321941984 0.2289068514141217 -0.7470259514588171 0.8365164771756225 1.2189039653256173 -1.0357888453943607 0.5844134922744593 0.06766614782738815 0.020948245966064108 -0.0037425527756468242 0.21712699889140977 -0.3000624894572062 0.21442341267467593 0.18959111712790905 -0.17292956244467858 -0.26902087725203877 -1.0209999610663747 0.28668598989098926 -0.4478748791528985 -0.37883633223542407 -0.16613393389765674 -0.22013294230346395 -0.5050245460176399 0.6006912039449933 0.38505691241317286 1.2000431159196447 0.16830197617475512 -0.019363097164340516 -0.20953959419460358 -0.7038502052937972 0.8138491455550784 0.213685901050654 0.503027697539335 0.21280011878736693 0.23247619249073373 -0.32145365164736994 -0.226338137875985 0.3665266791475844 1.4053794916494984 -0.8072667275383958 0.0008045823374096903 -1.2074513794694532 -0.003106958709706953 0.17546946973373778 -0.2872243615420501 0.43811813180135584 -0.3231616584525523 0.1704873297307533 -0.16621147118797874 0.38379576318238134 -0.6485926198542177 0.355024931108809 -0.2541439941608696 1.1450369363962263 -0.0981780895268064 -0.07603005146894609 -0.24650387276933727 0.3373325754239203 1.1937815225091708 0.6042497020554977 -0.10559463973340477 1.0268805468411717 0.2942328681292096 -0.04354131039383074 0.5336361748415106 -0.46780695746517986 0.7649018501273015 -1.0214134919171272 -0.14551711632397832 -0.03268982787434509 1.0961719103343683 -0.8353253718815263 -0.38075457710605665 0.035662847360760586 0.4230041331217521 -0.07295191356426427 -0.11505635836338036 0.018960117777843975 0.04407628644533418 -0.9568934895943266 -0.03390042468690835 -0.7333999849133161 0.16966029827012324 -0.5344218579874597 -0.017213510538840047 -0.7323787288138678 -0.6754353359487599 -0.176157554805357 -0.4219661947172401 0.7249679317526011 0.1031485911972152 0.6491143044148958 0.7873470896683985 -0.04184396800110427 0.21567338454599627 0.10329945036951788 -2.3760184903267083 -0.16175653962435493 -0.35243529084987746 -0.02536665811291915 1.1141298986848047 -0.013539904480448558 -0.2826547624952052 -0.7409208651933468 -0.6498028133331305 -0.3201856662148735 -0.16350492085989204 0.3709920299343442 1.1977147185358623 -0.6345537179993582 -0.13183960681643178 0.26490668907719367 0.8339687524165694 -0.6039163321921924 -0.21444489552694884 0.2827856463948962 0.8568019690035054 -1.0476008098109748 0.25668467304282827 -0.17491440525816854 -0.5840978464880309 0.5272560160105997 -0.6652364448650503 -1.4401488057522291 -0.01279994508653911 -1.209496231413278 0.4241199839189734 0.24932979523793355 -0.19479244040793559 0.8007126903773464 0.825876249590865 1.3910565966917567 -1.630851570800033 0.3387876982224423 -0.22777493909498614 0.8784205816692752 0.9315207231105594 -0.4045403358979437 -0.08068404200522583 -0.8625054730988325 0.556312531257585 -0.1607078812320798 -0.07667128959709316 -1.174934887047059 0.4421917915045611 -0.3162703963945593 -0.24337455141209816 -0.1562916964167211 -0.05909959102552846 0.35214814337320516 -0.7061121284384466 0.09202257248299914 0.8315820209463431 0.3183692176129232 1.0742324382496375 1.0247855844997191 1.258488450186312 0.5074029269839252 0.66761319291285 -0.4556638297353358 0.9735601946226408 0.2701924741214569 0.08295886092894716 0.2740204406115013 0.04751381035744341 0.7143875925330341 0.9356367434225862 -0.24586957508116508 0.15716422052197024 -0.48228033368296386 -0.7230573980273232 -0.26926937347527624 0.6674294308255068 -0.2820742342613608 1.888941505251037 0.2894907337536814 1.3796560096215538 1.7843408186198133 -0.04610824103368443 1.5051926570433212 -0.6521082462199974 -0.19110667740347323 -0.3140066845925317 -0.5409835172919661 0.05602521797413564 -0.6799898116048861 -0.12329379692941525 -0.49643014109467853 0.5490462235469243 -0.23523103837695447 -0.2618800733843552 -0.05002074440924163 -0.3232085706411016 -0.49663511751752776 -0.5530897974498004 -0.6426946943927476 0.7223735268219096 -0.5103805526526642 0.4111520503774474 0.03266081350726528 -0.4311132319293876 -0.7205301107619322 0.021913885952762814 0.5212350792211161 -0.41220074674191487 0.3654021907962213 0.15427015840141903 -0.8323812062415707 -0.12058721857206775 -0.1667771737461644 0.22789475023956682 0.37452730652375754 -0.876395434098868 0.4099827472252727 0.16387402449236477 0.4730115997168951 -0.23129325263345243 -0.17309847670100154 0.5086251032844982 -0.020669884603822408 -0.11628478164828235 -0.3894221805256193 -0.3833993333752002 -0.6336316248840665 0.21593093777303982 -0.06152485816744649 -0.5245631715806903 0.09229037540168579 -0.49905505239839254 -0.5453090763142632 -0.5586858264005284 -0.12873213290281882 0.7741298430278848 -0.8440779211056132 0.34548541876464334 -0.40588440306656337 0.21875677188961512 0.6371580062386528 0.2970055643959627 1.0752030351166284 0.3021622844102143 -0.209572554897999 -0.4613726184962317 0.7173820598201743 0.03661492657484555 0.23655677796848365 0.3636679765124524 -0.003627126410336386 -0.4491694536754729 -0.7408768153263331 0.26152222421825755 0.08573177251475896 -0.906227997057758 0.06129549059137471 0.5950518586356072 -0.31967921144571687 0.24305058319115422 0.38874358557467564 0.31108701976107994 -0.7078861460692963 0.6555423384891907 -0.8905363747154036 0.07489127406391338 0.37172620283368535 0.5002791439814633 0.06960344077974931 -0.42230313448532875 -0.29972771131451126 -0.41235054408510485 0.3748184483001632 0.43258812305144295 -0.5708886599200022 0.03935569211331812 0.5523363120892371 -0.3943709368416787 0.1516179082791618 -0.04478827601760966 0.9540439713273176 0.04012306777041564 0.12353191361180735 0.6231739377155502 -1.2541177964923014 -0.5524188188997561 0.5769133115179561 -0.01090479916501915 -0.2507264803865817 -0.8607294515174456 -0.496147525026632 0.17085153500328581 -0.6521503922677753 -1.424044433321085 -0.4127842637436737 -0.3986903472175249 -0.29138847528417144 -0.4622607405577628 0.8210578023257916 0.03164082629758468 0.8664423664867531 -0.28598252660745216 -1.5108156188194766 0.4907120923094027 0.1388366750590331 -0.01188781281047209 -0.1704849238067478 -0.6097740828358169 0.009349137388201631 0.6594769366813599 -0.04586850593536855 -0.14339279485989892 -0.5343061472626335 0.6652556238830465 0.028384496233053516 -0.7354440639546916 0.9788832084615688 0.6650580224368596 -0.060952400568196285 0.6314762382271247 1.0686965301918052 -0.31280648612676204 -0.5683903633471061 -0.04828687362373918 -0.5070746321998469 -0.19533318731673965 -0.3206267673700016 -0.016548276792084815 -0.8798426454915406 0.7772988556443728 0.1692396161991913 -0.0822096318783404 0.5015985687932627 0.34634038064013917 -0.05001337229793938 0.087248662059307 0.476059604295926 0.956691495004647 -0.665367212319951 0.11809947700338015 0.8186489445884901 0.9883046521762423 0.47165721049882586 -0.6106253588913716 0.1963167723298383 0.521458302141269 0.0342331710170988 0.060571657744845804 0.5408428622832985 -0.4672037131597918 -0.011540395236294576 -0.03427116834343613 1.7448199326987306 -0.6050056157806178 0.9173370909226889 -0.13074836002968526 -0.6444148195216832 0.3138206067555366 0.398564184484752 0.17388314173018737 0.37109193350832037 -0.9115133690233402 0.19742835019878302 -0.03501484500176353 -0.709000854054928 -0.0008250855558476801 0.4158539544046103 0.473259938702592 -0.012426466650407822 -0.4981177703464934 -0.6814241942798075 0.022550139007629692 0.8282609409529066 -0.4337805212758007 0.4879368317885745 -0.3008533871383768 -0.19727555549793374 1.2306057717571088 0.2550678812839805 0.34583806444614357 -0.16756986118096517 -0.5406340353622441 0.42465833195911123 0.8437358050174627 0.3256145963943023 -0.37899105569878555 1.1846441059646542 0.23135869431575173 -0.5627008336438973 -0.9684810295225751 0.23318175322745335 -0.12787168837967627 -0.9437817384634387 0.13869465568096617 0.7896937418042127 0.014522182751853506 -0.66006988249556 -0.6151118436296029 0.4034310086253958 0.5583091955305884 0.8602280713192948 0.015755173123786614 0.4509047151274871 1.4109769056857406 0.02799577223114469 -1.5817245693018391 0.49513896882729147 0.16144383176681804 -0.40278074846152256 -0.1392078806486055 0.7847550175675697 0.02729083573027243 0.3902351170164833 -0.36565312793506605 0.056492806177114614 0.11973846126603543 0.43247118667996176 -1.0853649096694378 -0.25988736506609433 0.38394857568286517 -0.5799901828673187 0.8350239156951035 0.18278717750890103 -1.1418111592556515 0.19004764966270232